svm_type c_svc
kernel_type rbf
gamma 0.00012207
nr_class 2
total_sv 39
rho 0.035122
label 0 1
nr_sv 20 19
SV
8 1:-0.16516 2:5.177 3:-0.357797 4:11.2492 5:-0.0366665 6:3.07518 7:-0.581489 8:6.84125 9:-0.187955 10:4.3872 
8 1:-0.0777538 2:4.8474 3:-0.521078 4:6.32091 5:-0.133098 6:7.60757 7:-0.315605 8:7.34466 9:-0.146741 10:4.37622 
8 1:-0.228487 2:6.21634 3:-0.323002 4:9.42349 5:-0.109044 6:3.14246 7:-0.0330238 8:4.26763 9:-0.122755 10:4.59425 
5.319346430459176 1:-0.355361 2:6.00567 3:-0.257754 4:5.44163 5:-0.299386 6:4.232 7:-0.376406 8:5.82305 9:-1.06908 10:15.708 
8 1:-0.250071 2:5.40473 3:-0.201222 4:4.69442 5:-0.396473 6:6.66486 7:-0.105281 8:3.79102 9:-0.498273 10:7.68124 
8 1:-0.209826 2:4.93024 3:-0.210393 4:5.15555 5:-0.156504 6:4.47484 7:-0.171337 8:5.60882 9:-0.210885 10:3.86329 
8 1:-0.283017 2:5.61808 3:-0.190163 4:5.22042 5:-0.322449 6:6.3709 7:-0.3492 8:7.81943 9:-0.176235 10:4.79361 
8 1:-0.141002 2:4.59663 3:-0.195124 4:4.81301 5:-0.188296 6:5.79565 7:-0.122717 8:4.99392 9:-0.153327 10:4.49331 
1.856014995376497 1:-0.27827 2:7.24029 3:-0.25537 4:6.93387 5:-0.155995 6:8.97302 7:-0.344893 8:3.25216 9:-0.431744 10:7.67053 
8 1:-0.0598686 2:3.73102 3:-0.290872 4:3.31004 5:-0.185651 6:2.90775 7:-0.327562 8:6.15239 9:-0.259048 10:2.26296 
8 1:-0.0537315 2:3.35763 3:-0.232411 4:4.53734 5:-0.109299 6:5.04853 7:-0.102013 8:4.52547 9:-0.0934461 10:3.4603 
8 1:-0.0864033 2:5.47022 3:-0.258442 4:7.69875 5:-0.0898067 6:4.43362 7:-0.229756 8:7.79561 9:-0.233647 10:6.93214 
8 1:-0.139569 2:4.45708 3:-0.318042 4:6.58581 5:-0.263419 6:6.58273 7:-0.280656 8:5.27751 9:-0.338109 10:3.95068 
8 1:-0.177284 2:9.02459 3:-0.241945 4:4.82634 5:-0.182143 6:4.60823 7:-0.334831 8:3.64127 9:-0.24639 10:3.78503 
8 1:-0.0249169 2:5.74137 3:-0.0721623 4:5.24108 5:-0.0948671 6:6.88911 7:-0.166503 8:5.62403 9:-0.383443 10:8.66622 
8 1:-0.228735 2:6.60956 3:-0.152403 4:4.47124 5:-0.501427 6:9.49261 7:-0.284823 8:5.44575 
8 1:-0.329716 2:6.26783 3:-0.307038 4:6.71885 5:-0.234477 6:6.76352 7:-0.325501 8:5.52064 9:-0.367273 10:7.57593 
8 1:-0.364108 2:5.49153 3:-0.527483 4:8.14114 5:-0.443458 6:7.2926 7:-0.48704 8:4.68497 
8 1:-0.247848 2:6.0039 3:-0.452578 4:6.4501 5:-0.25347 6:7.93801 7:-0.486057 8:8.23435 
8 1:-0.314031 2:5.89437 3:-0.215922 4:6.2036 5:-0.343853 6:4.7632 7:-0.21651 8:6.56001 9:-0.262008 10:5.51132 
-8 1:0.0142387 2:5.12625 3:0.0876245 4:2.51193 5:0.180859 6:1.98426 7:0.131281 8:3.22363 9:0.0579787 10:2.7433 
-8 1:0.127916 2:1.97786 3:0.0984581 4:2.72148 5:0.0947708 6:2.61914 7:0.105456 8:1.95222 9:0.138307 10:3.4935 
-8 1:0.0265156 2:2.80653 3:-0.115925 4:4.90864 5:-0.0185241 6:2.62561 7:-0.0394529 8:3.37157 9:-0.0939436 10:2.22135 
-8 1:0.094884 2:2.69313 3:0.0507036 4:2.59849 5:0.0702724 6:2.11035 7:0.0576777 8:2.75378 9:0.149922 10:2.18427 
-8 1:0.178607 2:2.49724 3:0.083553 4:2.04162 5:0.0543049 6:2.59179 7:-0.485756 8:10.2195 9:-0.0568814 10:2.87208 
-8 1:-0.0113775 2:1.75591 3:0.0628356 4:1.84115 5:0.0533847 6:2.25524 7:0.0459054 8:2.18761 9:-0.0249856 10:5.98341 
-8 1:-0.0555137 2:1.93474 3:-0.0260876 4:2.03928 5:0.0357813 6:1.4875 7:-0.159566 8:1.93807 9:-0.455655 10:7.94915 
-7.175361425835674 1:0.144982 2:2.07099 3:-0.0883798 4:3.6538 5:0.131455 6:1.88323 7:0.139928 8:1.66437 9:-0.0533013 10:2.82334 
-8 1:0.0334897 2:3.7988 3:0.149343 4:3.52878 5:0.155533 6:1.76777 7:0.165259 8:3.11171 9:0.101048 10:3.25171 
-8 1:-0.0405566 2:2.02189 3:-0.220226 4:2.45061 5:-0.0572583 6:2.71137 7:-0.068118 8:3.20217 9:-0.0906701 10:1.513 
-8 1:-0.354257 2:12.2982 3:-0.0402998 4:1.60951 5:-0.220603 6:2.2828 7:-0.10057 8:2.03976 9:-0.0134443 10:2.43576 
-8 1:0.0217028 2:1.90486 3:0.123665 4:2.40894 5:-0.292522 6:6.65423 7:0.142265 8:2.24023 9:0.12066 10:2.3777 
-8 1:0.0177971 2:2.34842 3:0.172079 4:2.44751 5:-0.453633 6:6.97797 7:0.103469 8:1.78598 9:0.111363 10:1.68441 
-8 1:0.081028 2:2.39884 3:-0.32316 4:8.42198 5:0.209785 6:2.91677 7:0.167036 8:2.20904 9:0.0939471 10:4.14084 
-8 1:0.182753 2:3.044 3:0.176343 4:2.38302 5:0.12961 6:2.44864 7:0.00557577 8:2.64754 9:0.00751436 10:2.40055 
-8 1:-0.335112 2:2.70537 3:-0.131686 4:2.20013 5:-0.344772 6:3.01216 7:-0.160248 8:2.77553 9:-0.270501 10:1.72651 
-8 1:0.0916978 2:2.40284 3:0.12638 4:2.15055 5:0.0858799 6:2.77665 7:-0.29395 8:6.022 9:0.151969 10:2.21956 
-8 1:0.0549747 2:3.229 3:0.0812778 4:3.16595 5:0.153386 6:2.31237 7:0.0563355 8:2.09066 9:0.121304 10:2.81281 
-8 1:0.0664279 2:2.92347 3:0.175979 4:2.56454 5:-0.0676735 6:7.05563 7:0.143425 8:2.35785 9:0.141342 10:2.37337 
